<?xml version="1.0"?>
<opencv_storage>
<cascade>
  <stageType>BOOST</stageType>
  <featureType>HAAR</featureType>
  <height>10</height>
  <width>24</width>
  <stageParams>
    <boostType>GAB</boostType>
    <minHitRate>9.9500000476837158e-01</minHitRate>
    <maxFalseAlarm>5.0000000000000000e-01</maxFalseAlarm>
    <weightTrimRate>9.4999998807907104e-01</weightTrimRate>
    <maxDepth>1</maxDepth>
    <maxWeakCount>100</maxWeakCount></stageParams>
  <featureParams>
    <maxCatCount>0</maxCatCount>
    <featSize>1</featSize>
    <mode>BASIC</mode></featureParams>
  <stageNum>14</stageNum>
  <stages>
    <!-- stage 0 -->
    <_>
      <maxWeakCount>5</maxWeakCount>
      <stageThreshold>-2.3393230438232422e+00</stageThreshold>
      <weakClassifiers>
        <_>
          <internalNodes>
            0 -1 49 6.5980136394500732e-02</internalNodes>
          <leafValues>
            -8.7964004278182983e-01 8.0386739969253540e-01</leafValues></_>
        <_>
          <internalNodes>
            0 -1 16 -8.0642819404602051e-02</internalNodes>
          <leafValues>
            7.6012134552001953e-01 -7.7880483865737915e-01</leafValues></_>
        <_>
          <internalNodes>
            0 -1 27 -1.1859386228024960e-02</internalNodes>
          <leafValues>
            8.3431565761566162e-01 -6.3183206319808960e-01</leafValues></_>
        <_>
          <internalNodes>
            0 -1 76 1.5233363956212997e-02</internalNodes>
          <leafValues>
            -5.4146403074264526e-01 8.2006394863128662e-01</leafValues></_>
        <_>
          <internalNodes>
            0 -1 31 1.0410632938146591e-02</internalNodes>
          <leafValues>
            -9.0097290277481079e-01 4.9241799116134644e-01</leafValues></_></weakClassifiers></_>
    <!-- stage 1 -->
    <_>
      <maxWeakCount>4</maxWeakCount>
      <stageThreshold>-1.7807698249816895e+00</stageThreshold>
      <weakClassifiers>
        <_>
          <internalNodes>
            0 -1 49 5.7515345513820648e-02</internalNodes>
          <leafValues>
            -8.9166194200515747e-01 7.9310345649719238e-01</leafValues></_>
        <_>
          <internalNodes>
            0 -1 77 2.6935044676065445e-02</internalNodes>
          <leafValues>
            -7.3728239536285400e-01 8.4109067916870117e-01</leafValues></_>
        <_>
          <internalNodes>
            0 -1 25 -7.4894507415592670e-03</internalNodes>
          <leafValues>
            7.4391019344329834e-01 -6.5972906351089478e-01</leafValues></_>
        <_>
          <internalNodes>
            0 -1 55 4.1430154815316200e-03</internalNodes>
          <leafValues>
            -7.0391613245010376e-01 5.0790357589721680e-01</leafValues></_></weakClassifiers></_>
    <!-- stage 2 -->
    <_>
      <maxWeakCount>5</maxWeakCount>
      <stageThreshold>-1.8540283441543579e+00</stageThreshold>
      <weakClassifiers>
        <_>
          <internalNodes>
            0 -1 59 6.4131811261177063e-02</internalNodes>
          <leafValues>
            -8.7621003389358521e-01 5.0631457567214966e-01</leafValues></_>
        <_>
          <internalNodes>
            0 -1 66 -1.8426157534122467e-02</internalNodes>
          <leafValues>
            6.5033304691314697e-01 -7.3670929670333862e-01</leafValues></_>
        <_>
          <internalNodes>
            0 -1 2 2.6226276531815529e-03</internalNodes>
          <leafValues>
            -5.6660157442092896e-01 6.3080906867980957e-01</leafValues></_>
        <_>
          <internalNodes>
            0 -1 79 1.2508873827755451e-02</internalNodes>
          <leafValues>
            -4.1372743248939514e-01 7.1310293674468994e-01</leafValues></_>
        <_>
          <internalNodes>
            0 -1 47 3.6360148340463638e-02</internalNodes>
          <leafValues>
            -3.5754290223121643e-01 7.3922002315521240e-01</leafValues></_></weakClassifiers></_>
    <!-- stage 3 -->
    <_>
      <maxWeakCount>5</maxWeakCount>
      <stageThreshold>-1.8291593790054321e+00</stageThreshold>
      <weakClassifiers>
        <_>
          <internalNodes>
            0 -1 10 9.8516575992107391e-02</internalNodes>
          <leafValues>
            -8.6739695072174072e-01 5.7090014219284058e-01</leafValues></_>
        <_>
          <internalNodes>
            0 -1 15 -1.0416477918624878e-01</internalNodes>
          <leafValues>
            4.8657450079917908e-01 -7.1813029050827026e-01</leafValues></_>
        <_>
          <internalNodes>
            0 -1 73 -1.3013776391744614e-02</internalNodes>
          <leafValues>
            5.9777092933654785e-01 -6.1230444908142090e-01</leafValues></_>
        <_>
          <internalNodes>
            0 -1 35 1.6975797712802887e-02</internalNodes>
          <leafValues>
            -3.9055493474006653e-01 7.9095947742462158e-01</leafValues></_>
        <_>
          <internalNodes>
            0 -1 7 2.0210960879921913e-02</internalNodes>
          <leafValues>
            -3.5221058130264282e-01 7.5922721624374390e-01</leafValues></_></weakClassifiers></_>
    <!-- stage 4 -->
    <_>
      <maxWeakCount>5</maxWeakCount>
      <stageThreshold>-1.4742976427078247e+00</stageThreshold>
      <weakClassifiers>
        <_>
          <internalNodes>
            0 -1 14 1.6665074229240417e-01</internalNodes>
          <leafValues>
            -8.7275785207748413e-01 7.9775279760360718e-01</leafValues></_>
        <_>
          <internalNodes>
            0 -1 11 7.5839266180992126e-02</internalNodes>
          <leafValues>
            -6.9283646345138550e-01 7.2927081584930420e-01</leafValues></_>
        <_>
          <internalNodes>
            0 -1 29 7.2770625352859497e-02</internalNodes>
          <leafValues>
            -4.1754335165023804e-01 7.6655036211013794e-01</leafValues></_>
        <_>
          <internalNodes>
            0 -1 26 3.8933068513870239e-01</internalNodes>
          <leafValues>
            -2.8704237937927246e-01 8.6985230445861816e-01</leafValues></_>
        <_>
          <internalNodes>
            0 -1 38 1.0645224899053574e-01</internalNodes>
          <leafValues>
            -3.4970030188560486e-01 7.9588246345520020e-01</leafValues></_></weakClassifiers></_>
    <!-- stage 5 -->
    <_>
      <maxWeakCount>7</maxWeakCount>
      <stageThreshold>-2.1715524196624756e+00</stageThreshold>
      <weakClassifiers>
        <_>
          <internalNodes>
            0 -1 64 4.9698270857334137e-02</internalNodes>
          <leafValues>
            -7.9580873250961304e-01 7.4551969766616821e-01</leafValues></_>
        <_>
          <internalNodes>
            0 -1 0 4.0470380336046219e-02</internalNodes>
          <leafValues>
            -5.4509872198104858e-01 6.9873934984207153e-01</leafValues></_>
        <_>
          <internalNodes>
            0 -1 61 -4.2172100394964218e-02</internalNodes>
          <leafValues>
            5.0732004642486572e-01 -5.3195881843566895e-01</leafValues></_>
        <_>
          <internalNodes>
            0 -1 24 -2.2813141345977783e-02</internalNodes>
          <leafValues>
            5.8853673934936523e-01 -4.7983884811401367e-01</leafValues></_>
        <_>
          <internalNodes>
            0 -1 39 1.0423848405480385e-02</internalNodes>
          <leafValues>
            2.7944129705429077e-01 -8.7439829111099243e-01</leafValues></_>
        <_>
          <internalNodes>
            0 -1 34 1.9638624042272568e-02</internalNodes>
          <leafValues>
            -7.8143566846847534e-01 2.8204503655433655e-01</leafValues></_>
        <_>
          <internalNodes>
            0 -1 75 3.7598185241222382e-02</internalNodes>
          <leafValues>
            -3.8033357262611389e-01 6.7860352993011475e-01</leafValues></_></weakClassifiers></_>
    <!-- stage 6 -->
    <_>
      <maxWeakCount>6</maxWeakCount>
      <stageThreshold>-2.1302173137664795e+00</stageThreshold>
      <weakClassifiers>
        <_>
          <internalNodes>
            0 -1 56 -3.9723686873912811e-02</internalNodes>
          <leafValues>
            5.1388889551162720e-01 -8.1910109519958496e-01</leafValues></_>
        <_>
          <internalNodes>
            0 -1 40 -7.6994530856609344e-02</internalNodes>
          <leafValues>
            3.0077949166297913e-01 -7.1705871820449829e-01</leafValues></_>
        <_>
          <internalNodes>
            0 -1 67 -2.7534019201993942e-02</internalNodes>
          <leafValues>
            6.0077017545700073e-01 -4.7297754883766174e-01</leafValues></_>
        <_>
          <internalNodes>
            0 -1 50 2.1615479141473770e-02</internalNodes>
          <leafValues>
            2.3794175684452057e-01 -9.4122928380966187e-01</leafValues></_>
        <_>
          <internalNodes>
            0 -1 62 -7.6285954564809799e-03</internalNodes>
          <leafValues>
            3.3631214499473572e-01 -6.0454404354095459e-01</leafValues></_>
        <_>
          <internalNodes>
            0 -1 60 3.9476249366998672e-03</internalNodes>
          <leafValues>
            2.4552230536937714e-01 -7.8527867794036865e-01</leafValues></_></weakClassifiers></_>
    <!-- stage 7 -->
    <_>
      <maxWeakCount>7</maxWeakCount>
      <stageThreshold>-2.2694382667541504e+00</stageThreshold>
      <weakClassifiers>
        <_>
          <internalNodes>
            0 -1 42 1.2778231501579285e-01</internalNodes>
          <leafValues>
            -8.3129012584686279e-01 3.5362997651100159e-01</leafValues></_>
        <_>
          <internalNodes>
            0 -1 19 -1.2727069854736328e-01</internalNodes>
          <leafValues>
            4.3008461594581604e-01 -6.5183430910110474e-01</leafValues></_>
        <_>
          <internalNodes>
            0 -1 46 1.3901438564062119e-02</internalNodes>
          <leafValues>
            -6.2945228815078735e-01 3.9141571521759033e-01</leafValues></_>
        <_>
          <internalNodes>
            0 -1 78 3.4102812409400940e-02</internalNodes>
          <leafValues>
            -3.7287157773971558e-01 5.7534837722778320e-01</leafValues></_>
        <_>
          <internalNodes>
            0 -1 20 -4.8021345719462261e-05</internalNodes>
          <leafValues>
            3.0362403392791748e-01 -7.6465612649917603e-01</leafValues></_>
        <_>
          <internalNodes>
            0 -1 17 1.3287138938903809e-01</internalNodes>
          <leafValues>
            -3.2415798306465149e-01 6.5454047918319702e-01</leafValues></_>
        <_>
          <internalNodes>
            0 -1 43 4.3848128989338875e-03</internalNodes>
          <leafValues>
            2.3654389381408691e-01 -8.5478043556213379e-01</leafValues></_></weakClassifiers></_>
    <!-- stage 8 -->
    <_>
      <maxWeakCount>6</maxWeakCount>
      <stageThreshold>-1.5159850120544434e+00</stageThreshold>
      <weakClassifiers>
        <_>
          <internalNodes>
            0 -1 38 1.5418763458728790e-01</internalNodes>
          <leafValues>
            -8.1189250946044922e-01 3.7595906853675842e-01</leafValues></_>
        <_>
          <internalNodes>
            0 -1 1 1.1518304049968719e-01</internalNodes>
          <leafValues>
            -5.7650905847549438e-01 4.3568560481071472e-01</leafValues></_>
        <_>
          <internalNodes>
            0 -1 70 5.1682954654097557e-04</internalNodes>
          <leafValues>
            -6.6444873809814453e-01 3.0514311790466309e-01</leafValues></_>
        <_>
          <internalNodes>
            0 -1 69 9.3317350547295064e-05</internalNodes>
          <leafValues>
            -7.3188781738281250e-01 2.3755922913551331e-01</leafValues></_>
        <_>
          <internalNodes>
            0 -1 30 -1.9167978316545486e-03</internalNodes>
          <leafValues>
            -9.0931719541549683e-01 1.8782041966915131e-01</leafValues></_>
        <_>
          <internalNodes>
            0 -1 30 1.8044929020106792e-03</internalNodes>
          <leafValues>
            2.2959633171558380e-01 -8.5810613632202148e-01</leafValues></_></weakClassifiers></_>
    <!-- stage 9 -->
    <_>
      <maxWeakCount>6</maxWeakCount>
      <stageThreshold>-2.1001696586608887e+00</stageThreshold>
      <weakClassifiers>
        <_>
          <internalNodes>
            0 -1 13 1.8260081112384796e-01</internalNodes>
          <leafValues>
            -8.2486867904663086e-01 3.2786884903907776e-01</leafValues></_>
        <_>
          <internalNodes>
            0 -1 5 7.7380739152431488e-02</internalNodes>
          <leafValues>
            -6.1857920885086060e-01 3.7790828943252563e-01</leafValues></_>
        <_>
          <internalNodes>
            0 -1 80 1.8793620169162750e-02</internalNodes>
          <leafValues>
            -4.9322161078453064e-01 4.4457569718360901e-01</leafValues></_>
        <_>
          <internalNodes>
            0 -1 52 1.6995035111904144e-03</internalNodes>
          <leafValues>
            2.3234423995018005e-01 -9.1955810785293579e-01</leafValues></_>
        <_>
          <internalNodes>
            0 -1 52 -1.4250401873141527e-03</internalNodes>
          <leafValues>
            -8.2059478759765625e-01 3.4731051325798035e-01</leafValues></_>
        <_>
          <internalNodes>
            0 -1 45 1.6242854297161102e-02</internalNodes>
          <leafValues>
            -7.4315488338470459e-01 2.2877898812294006e-01</leafValues></_></weakClassifiers></_>
    <!-- stage 10 -->
    <_>
      <maxWeakCount>10</maxWeakCount>
      <stageThreshold>-1.5309544801712036e+00</stageThreshold>
      <weakClassifiers>
        <_>
          <internalNodes>
            0 -1 57 4.1847184300422668e-02</internalNodes>
          <leafValues>
            -7.8906893730163574e-01 5.1173710823059082e-01</leafValues></_>
        <_>
          <internalNodes>
            0 -1 8 4.3822741135954857e-03</internalNodes>
          <leafValues>
            -6.1171454191207886e-01 4.3885374069213867e-01</leafValues></_>
        <_>
          <internalNodes>
            0 -1 32 1.8149938434362411e-02</internalNodes>
          <leafValues>
            -3.9282593131065369e-01 5.9314328432083130e-01</leafValues></_>
        <_>
          <internalNodes>
            0 -1 21 1.4409862342290580e-04</internalNodes>
          <leafValues>
            -5.8524572849273682e-01 3.0142125487327576e-01</leafValues></_>
        <_>
          <internalNodes>
            0 -1 41 -5.9782043099403381e-03</internalNodes>
          <leafValues>
            -9.1073787212371826e-01 1.6348491609096527e-01</leafValues></_>
        <_>
          <internalNodes>
            0 -1 72 -1.4007465913891792e-02</internalNodes>
          <leafValues>
            4.8615109920501709e-01 -3.4639558196067810e-01</leafValues></_>
        <_>
          <internalNodes>
            0 -1 44 1.9790045917034149e-02</internalNodes>
          <leafValues>
            -6.7596119642257690e-01 2.5232389569282532e-01</leafValues></_>
        <_>
          <internalNodes>
            0 -1 51 -6.2401317059993744e-02</internalNodes>
          <leafValues>
            4.4596913456916809e-01 -4.8453718423843384e-01</leafValues></_>
        <_>
          <internalNodes>
            0 -1 33 1.7492792010307312e-01</internalNodes>
          <leafValues>
            -2.5965544581413269e-01 6.9775044918060303e-01</leafValues></_>
        <_>
          <internalNodes>
            0 -1 12 -5.8939389884471893e-02</internalNodes>
          <leafValues>
            7.7217274904251099e-01 -1.9653360545635223e-01</leafValues></_></weakClassifiers></_>
    <!-- stage 11 -->
    <_>
      <maxWeakCount>7</maxWeakCount>
      <stageThreshold>-1.4707791805267334e+00</stageThreshold>
      <weakClassifiers>
        <_>
          <internalNodes>
            0 -1 65 5.3229093551635742e-02</internalNodes>
          <leafValues>
            -7.7095437049865723e-01 3.6240601539611816e-01</leafValues></_>
        <_>
          <internalNodes>
            0 -1 63 -3.3799344673752785e-03</internalNodes>
          <leafValues>
            2.7297851443290710e-01 -6.6557872295379639e-01</leafValues></_>
        <_>
          <internalNodes>
            0 -1 83 -8.9797459077090025e-04</internalNodes>
          <leafValues>
            3.0160310864448547e-01 -6.6804146766662598e-01</leafValues></_>
        <_>
          <internalNodes>
            0 -1 53 4.3281633406877518e-03</internalNodes>
          <leafValues>
            -6.9886922836303711e-01 2.6249030232429504e-01</leafValues></_>
        <_>
          <internalNodes>
            0 -1 6 2.3791013285517693e-02</internalNodes>
          <leafValues>
            -2.9110249876976013e-01 6.0422503948211670e-01</leafValues></_>
        <_>
          <internalNodes>
            0 -1 58 4.3990209698677063e-02</internalNodes>
          <leafValues>
            -4.2108815908432007e-01 4.7131657600402832e-01</leafValues></_>
        <_>
          <internalNodes>
            0 -1 54 4.4226525351405144e-03</internalNodes>
          <leafValues>
            2.3674568533897400e-01 -7.1252161264419556e-01</leafValues></_></weakClassifiers></_>
    <!-- stage 12 -->
    <_>
      <maxWeakCount>9</maxWeakCount>
      <stageThreshold>-2.0391392707824707e+00</stageThreshold>
      <weakClassifiers>
        <_>
          <internalNodes>
            0 -1 36 5.9319905936717987e-02</internalNodes>
          <leafValues>
            -7.4685579538345337e-01 4.5119705796241760e-01</leafValues></_>
        <_>
          <internalNodes>
            0 -1 9 6.2722884118556976e-02</internalNodes>
          <leafValues>
            -5.9782230854034424e-01 3.2243168354034424e-01</leafValues></_>
        <_>
          <internalNodes>
            0 -1 81 -4.6226652339100838e-03</internalNodes>
          <leafValues>
            3.1114777922630310e-01 -5.2461707592010498e-01</leafValues></_>
        <_>
          <internalNodes>
            0 -1 23 1.5119745512492955e-04</internalNodes>
          <leafValues>
            -8.0784928798675537e-01 1.8767590820789337e-01</leafValues></_>
        <_>
          <internalNodes>
            0 -1 3 3.2644048333168030e-02</internalNodes>
          <leafValues>
            -3.4819647669792175e-01 4.5652696490287781e-01</leafValues></_>
        <_>
          <internalNodes>
            0 -1 68 -1.1670821346342564e-02</internalNodes>
          <leafValues>
            4.0893176198005676e-01 -4.1865324974060059e-01</leafValues></_>
        <_>
          <internalNodes>
            0 -1 37 4.2940536513924599e-03</internalNodes>
          <leafValues>
            1.8885207176208496e-01 -9.3234330415725708e-01</leafValues></_>
        <_>
          <internalNodes>
            0 -1 37 -2.8951219283044338e-03</internalNodes>
          <leafValues>
            -8.4577387571334839e-01 1.4960050582885742e-01</leafValues></_>
        <_>
          <internalNodes>
            0 -1 22 -2.4580229073762894e-03</internalNodes>
          <leafValues>
            2.3048663139343262e-01 -5.9154272079467773e-01</leafValues></_></weakClassifiers></_>
    <!-- stage 13 -->
    <_>
      <maxWeakCount>8</maxWeakCount>
      <stageThreshold>-1.8402475118637085e+00</stageThreshold>
      <weakClassifiers>
        <_>
          <internalNodes>
            0 -1 71 5.8278322219848633e-02</internalNodes>
          <leafValues>
            -7.4176406860351563e-01 4.7674417495727539e-01</leafValues></_>
        <_>
          <internalNodes>
            0 -1 18 7.4703685939311981e-02</internalNodes>
          <leafValues>
            -4.8617681860923767e-01 4.9150097370147705e-01</leafValues></_>
        <_>
          <internalNodes>
            0 -1 4 5.0343414768576622e-03</internalNodes>
          <leafValues>
            -5.7065981626510620e-01 3.5490179061889648e-01</leafValues></_>
        <_>
          <internalNodes>
            0 -1 28 -5.3424336947500706e-03</internalNodes>
          <leafValues>
            4.3410262465476990e-01 -3.8610792160034180e-01</leafValues></_>
        <_>
          <internalNodes>
            0 -1 74 -3.4188581630587578e-03</internalNodes>
          <leafValues>
            2.9864531755447388e-01 -5.4891139268875122e-01</leafValues></_>
        <_>
          <internalNodes>
            0 -1 41 6.2676952220499516e-03</internalNodes>
          <leafValues>
            1.8574164807796478e-01 -8.9770710468292236e-01</leafValues></_>
        <_>
          <internalNodes>
            0 -1 82 -1.6945945390034467e-04</internalNodes>
          <leafValues>
            2.9228174686431885e-01 -4.9153313040733337e-01</leafValues></_>
        <_>
          <internalNodes>
            0 -1 48 4.1506536304950714e-02</internalNodes>
          <leafValues>
            -4.0486139059066772e-01 3.8299882411956787e-01</leafValues></_></weakClassifiers></_></stages>
  <features>
    <_>
      <rects>
        <_>
          0 0 2 9 -1.</_>
        <_>
          1 0 1 9 2.</_></rects>
      <tilted>0</tilted></_>
    <_>
      <rects>
        <_>
          0 0 23 2 -1.</_>
        <_>
          0 1 23 1 2.</_></rects>
      <tilted>0</tilted></_>
    <_>
      <rects>
        <_>
          0 1 2 1 -1.</_>
        <_>
          1 1 1 1 2.</_></rects>
      <tilted>0</tilted></_>
    <_>
      <rects>
        <_>
          0 1 3 6 -1.</_>
        <_>
          1 1 1 6 3.</_></rects>
      <tilted>0</tilted></_>
    <_>
      <rects>
        <_>
          0 1 6 1 -1.</_>
        <_>
          2 1 2 1 3.</_></rects>
      <tilted>0</tilted></_>
    <_>
      <rects>
        <_>
          0 2 12 5 -1.</_>
        <_>
          6 2 6 5 2.</_></rects>
      <tilted>0</tilted></_>
    <_>
      <rects>
        <_>
          0 4 3 3 -1.</_>
        <_>
          1 4 1 3 3.</_></rects>
      <tilted>0</tilted></_>
    <_>
      <rects>
        <_>
          0 4 3 5 -1.</_>
        <_>
          1 4 1 5 3.</_></rects>
      <tilted>0</tilted></_>
    <_>
      <rects>
        <_>
          0 8 2 1 -1.</_>
        <_>
          1 8 1 1 2.</_></rects>
      <tilted>0</tilted></_>
    <_>
      <rects>
        <_>
          1 0 12 3 -1.</_>
        <_>
          1 1 12 1 3.</_></rects>
      <tilted>0</tilted></_>
    <_>
      <rects>
        <_>
          1 0 16 3 -1.</_>
        <_>
          1 1 16 1 3.</_></rects>
      <tilted>0</tilted></_>
    <_>
      <rects>
        <_>
          1 0 23 2 -1.</_>
        <_>
          1 1 23 1 2.</_></rects>
      <tilted>0</tilted></_>
    <_>
      <rects>
        <_>
          1 2 22 2 -1.</_>
        <_>
          1 3 22 1 2.</_></rects>
      <tilted>0</tilted></_>
    <_>
      <rects>
        <_>
          1 5 22 4 -1.</_>
        <_>
          1 7 22 2 2.</_></rects>
      <tilted>0</tilted></_>
    <_>
      <rects>
        <_>
          1 7 22 3 -1.</_>
        <_>
          1 8 22 1 3.</_></rects>
      <tilted>0</tilted></_>
    <_>
      <rects>
        <_>
          1 8 22 2 -1.</_>
        <_>
          1 9 22 1 2.</_></rects>
      <tilted>0</tilted></_>
    <_>
      <rects>
        <_>
          1 8 23 2 -1.</_>
        <_>
          1 9 23 1 2.</_></rects>
      <tilted>0</tilted></_>
    <_>
      <rects>
        <_>
          2 5 18 4 -1.</_>
        <_>
          2 7 18 2 2.</_></rects>
      <tilted>0</tilted></_>
    <_>
      <rects>
        <_>
          2 6 19 2 -1.</_>
        <_>
          2 7 19 1 2.</_></rects>
      <tilted>0</tilted></_>
    <_>
      <rects>
        <_>
          2 8 21 2 -1.</_>
        <_>
          2 9 21 1 2.</_></rects>
      <tilted>0</tilted></_>
    <_>
      <rects>
        <_>
          3 0 4 3 -1.</_>
        <_>
          5 0 2 3 2.</_></rects>
      <tilted>0</tilted></_>
    <_>
      <rects>
        <_>
          3 1 3 1 -1.</_>
        <_>
          4 1 1 1 3.</_></rects>
      <tilted>0</tilted></_>
    <_>
      <rects>
        <_>
          3 1 6 1 -1.</_>
        <_>
          5 1 2 1 3.</_></rects>
      <tilted>0</tilted></_>
    <_>
      <rects>
        <_>
          3 2 10 2 -1.</_>
        <_>
          8 2 5 2 2.</_></rects>
      <tilted>0</tilted></_>
    <_>
      <rects>
        <_>
          4 0 3 8 -1.</_>
        <_>
          5 0 1 8 3.</_></rects>
      <tilted>0</tilted></_>
    <_>
      <rects>
        <_>
          4 1 3 3 -1.</_>
        <_>
          5 1 1 3 3.</_></rects>
      <tilted>0</tilted></_>
    <_>
      <rects>
        <_>
          4 1 15 9 -1.</_>
        <_>
          4 4 15 3 3.</_></rects>
      <tilted>0</tilted></_>
    <_>
      <rects>
        <_>
          4 3 3 4 -1.</_>
        <_>
          5 3 1 4 3.</_></rects>
      <tilted>0</tilted></_>
    <_>
      <rects>
        <_>
          4 5 3 1 -1.</_>
        <_>
          5 5 1 1 3.</_></rects>
      <tilted>0</tilted></_>
    <_>
      <rects>
        <_>
          4 6 18 3 -1.</_>
        <_>
          4 7 18 1 3.</_></rects>
      <tilted>0</tilted></_>
    <_>
      <rects>
        <_>
          4 9 3 1 -1.</_>
        <_>
          5 9 1 1 3.</_></rects>
      <tilted>0</tilted></_>
    <_>
      <rects>
        <_>
          5 0 15 5 -1.</_>
        <_>
          10 0 5 5 3.</_></rects>
      <tilted>0</tilted></_>
    <_>
      <rects>
        <_>
          5 1 2 5 -1.</_>
        <_>
          6 1 1 5 2.</_></rects>
      <tilted>0</tilted></_>
    <_>
      <rects>
        <_>
          5 1 18 4 -1.</_>
        <_>
          5 3 18 2 2.</_></rects>
      <tilted>0</tilted></_>
    <_>
      <rects>
        <_>
          5 2 15 3 -1.</_>
        <_>
          10 2 5 3 3.</_></rects>
      <tilted>0</tilted></_>
    <_>
      <rects>
        <_>
          5 3 3 3 -1.</_>
        <_>
          6 3 1 3 3.</_></rects>
      <tilted>0</tilted></_>
    <_>
      <rects>
        <_>
          5 3 3 5 -1.</_>
        <_>
          6 3 1 5 3.</_></rects>
      <tilted>0</tilted></_>
    <_>
      <rects>
        <_>
          5 8 3 2 -1.</_>
        <_>
          6 8 1 2 3.</_></rects>
      <tilted>0</tilted></_>
    <_>
      <rects>
        <_>
          6 3 9 4 -1.</_>
        <_>
          9 3 3 4 3.</_></rects>
      <tilted>0</tilted></_>
    <_>
      <rects>
        <_>
          6 8 9 2 -1.</_>
        <_>
          9 8 3 2 3.</_></rects>
      <tilted>0</tilted></_>
    <_>
      <rects>
        <_>
          6 8 18 2 -1.</_>
        <_>
          6 9 18 1 2.</_></rects>
      <tilted>0</tilted></_>
    <_>
      <rects>
        <_>
          7 0 6 1 -1.</_>
        <_>
          9 0 2 1 3.</_></rects>
      <tilted>0</tilted></_>
    <_>
      <rects>
        <_>
          7 0 17 3 -1.</_>
        <_>
          7 1 17 1 3.</_></rects>
      <tilted>0</tilted></_>
    <_>
      <rects>
        <_>
          7 1 6 1 -1.</_>
        <_>
          9 1 2 1 3.</_></rects>
      <tilted>0</tilted></_>
    <_>
      <rects>
        <_>
          7 1 9 4 -1.</_>
        <_>
          10 1 3 4 3.</_></rects>
      <tilted>0</tilted></_>
    <_>
      <rects>
        <_>
          7 2 9 3 -1.</_>
        <_>
          10 2 3 3 3.</_></rects>
      <tilted>0</tilted></_>
    <_>
      <rects>
        <_>
          7 5 6 2 -1.</_>
        <_>
          9 5 2 2 3.</_></rects>
      <tilted>0</tilted></_>
    <_>
      <rects>
        <_>
          7 5 6 3 -1.</_>
        <_>
          9 5 2 3 3.</_></rects>
      <tilted>0</tilted></_>
    <_>
      <rects>
        <_>
          8 2 6 4 -1.</_>
        <_>
          10 2 2 4 3.</_></rects>
      <tilted>0</tilted></_>
    <_>
      <rects>
        <_>
          8 3 6 4 -1.</_>
        <_>
          10 3 2 4 3.</_></rects>
      <tilted>0</tilted></_>
    <_>
      <rects>
        <_>
          8 7 12 3 -1.</_>
        <_>
          12 7 4 3 3.</_></rects>
      <tilted>0</tilted></_>
    <_>
      <rects>
        <_>
          8 8 13 2 -1.</_>
        <_>
          8 9 13 1 2.</_></rects>
      <tilted>0</tilted></_>
    <_>
      <rects>
        <_>
          10 0 3 1 -1.</_>
        <_>
          11 0 1 1 3.</_></rects>
      <tilted>0</tilted></_>
    <_>
      <rects>
        <_>
          10 0 1 8 -1.</_>
        <_>
          10 4 1 4 2.</_></rects>
      <tilted>0</tilted></_>
    <_>
      <rects>
        <_>
          10 5 2 4 -1.</_>
        <_>
          10 7 2 2 2.</_></rects>
      <tilted>0</tilted></_>
    <_>
      <rects>
        <_>
          11 0 1 4 -1.</_>
        <_>
          11 2 1 2 2.</_></rects>
      <tilted>0</tilted></_>
    <_>
      <rects>
        <_>
          12 2 3 6 -1.</_>
        <_>
          13 2 1 6 3.</_></rects>
      <tilted>0</tilted></_>
    <_>
      <rects>
        <_>
          13 2 3 6 -1.</_>
        <_>
          14 2 1 6 3.</_></rects>
      <tilted>0</tilted></_>
    <_>
      <rects>
        <_>
          13 5 7 4 -1.</_>
        <_>
          13 7 7 2 2.</_></rects>
      <tilted>0</tilted></_>
    <_>
      <rects>
        <_>
          14 7 8 3 -1.</_>
        <_>
          14 8 8 1 3.</_></rects>
      <tilted>0</tilted></_>
    <_>
      <rects>
        <_>
          14 8 6 2 -1.</_>
        <_>
          16 8 2 2 3.</_></rects>
      <tilted>0</tilted></_>
    <_>
      <rects>
        <_>
          14 8 9 2 -1.</_>
        <_>
          14 9 9 1 2.</_></rects>
      <tilted>0</tilted></_>
    <_>
      <rects>
        <_>
          15 0 6 3 -1.</_>
        <_>
          17 0 2 3 3.</_></rects>
      <tilted>0</tilted></_>
    <_>
      <rects>
        <_>
          15 1 4 1 -1.</_>
        <_>
          17 1 2 1 2.</_></rects>
      <tilted>0</tilted></_>
    <_>
      <rects>
        <_>
          16 2 3 6 -1.</_>
        <_>
          17 2 1 6 3.</_></rects>
      <tilted>0</tilted></_>
    <_>
      <rects>
        <_>
          16 3 3 5 -1.</_>
        <_>
          17 3 1 5 3.</_></rects>
      <tilted>0</tilted></_>
    <_>
      <rects>
        <_>
          17 0 3 7 -1.</_>
        <_>
          18 0 1 7 3.</_></rects>
      <tilted>0</tilted></_>
    <_>
      <rects>
        <_>
          17 1 3 7 -1.</_>
        <_>
          18 1 1 7 3.</_></rects>
      <tilted>0</tilted></_>
    <_>
      <rects>
        <_>
          17 1 2 8 -1.</_>
        <_>
          18 1 1 8 2.</_></rects>
      <tilted>0</tilted></_>
    <_>
      <rects>
        <_>
          17 1 4 2 -1.</_>
        <_>
          19 1 2 2 2.</_></rects>
      <tilted>0</tilted></_>
    <_>
      <rects>
        <_>
          18 8 6 1 -1.</_>
        <_>
          20 8 2 1 3.</_></rects>
      <tilted>0</tilted></_>
    <_>
      <rects>
        <_>
          19 3 3 5 -1.</_>
        <_>
          20 3 1 5 3.</_></rects>
      <tilted>0</tilted></_>
    <_>
      <rects>
        <_>
          20 3 3 3 -1.</_>
        <_>
          21 3 1 3 3.</_></rects>
      <tilted>0</tilted></_>
    <_>
      <rects>
        <_>
          20 3 3 5 -1.</_>
        <_>
          21 3 1 5 3.</_></rects>
      <tilted>0</tilted></_>
    <_>
      <rects>
        <_>
          20 7 4 2 -1.</_>
        <_>
          22 7 2 2 2.</_></rects>
      <tilted>0</tilted></_>
    <_>
      <rects>
        <_>
          21 0 3 7 -1.</_>
        <_>
          22 0 1 7 3.</_></rects>
      <tilted>0</tilted></_>
    <_>
      <rects>
        <_>
          21 1 3 7 -1.</_>
        <_>
          22 1 1 7 3.</_></rects>
      <tilted>0</tilted></_>
    <_>
      <rects>
        <_>
          21 1 3 9 -1.</_>
        <_>
          22 1 1 9 3.</_></rects>
      <tilted>0</tilted></_>
    <_>
      <rects>
        <_>
          21 2 3 6 -1.</_>
        <_>
          22 2 1 6 3.</_></rects>
      <tilted>0</tilted></_>
    <_>
      <rects>
        <_>
          21 5 3 2 -1.</_>
        <_>
          22 5 1 2 3.</_></rects>
      <tilted>0</tilted></_>
    <_>
      <rects>
        <_>
          21 5 3 4 -1.</_>
        <_>
          22 5 1 4 3.</_></rects>
      <tilted>0</tilted></_>
    <_>
      <rects>
        <_>
          21 8 1 2 -1.</_>
        <_>
          21 9 1 1 2.</_></rects>
      <tilted>0</tilted></_>
    <_>
      <rects>
        <_>
          22 0 2 2 -1.</_>
        <_>
          22 0 1 1 2.</_>
        <_>
          23 1 1 1 2.</_></rects>
      <tilted>0</tilted></_>
    <_>
      <rects>
        <_>
          22 8 2 1 -1.</_>
        <_>
          23 8 1 1 2.</_></rects>
      <tilted>0</tilted></_></features></cascade>
</opencv_storage>
